<?xml version="1.0"?>
<opencv_storage>
<stage2>
  <maxWeakCount>7</maxWeakCount>
  <stageThreshold>-9.8351716995239258e-01</stageThreshold>
  <weakClassifiers>
    <_>
      <internalNodes>
        0 -1 11496 -3.8361011538654566e-03</internalNodes>
      <leafValues>
        -6.4545452594757080e-01 5.2499997615814209e-01</leafValues></_>
    <_>
      <internalNodes>
        0 -1 41075 1.0253214091062546e-01</internalNodes>
      <leafValues>
        -4.1722503304481506e-01 6.0241901874542236e-01</leafValues></_>
    <_>
      <internalNodes>
        0 -1 12447 -2.1585822105407715e-03</internalNodes>
      <leafValues>
        -6.6912776231765747e-01 3.1896206736564636e-01</leafValues></_>
    <_>
      <internalNodes>
        0 -1 87458 7.7169947326183319e-03</internalNodes>
      <leafValues>
        -4.1074395179748535e-01 5.1033383607864380e-01</leafValues></_>
    <_>
      <internalNodes>
        0 -1 159549 -6.5631093457341194e-04</internalNodes>
      <leafValues>
        -8.1692105531692505e-01 3.0987367033958435e-01</leafValues></_>
    <_>
      <internalNodes>
        0 -1 86324 -3.6845481954514980e-03</internalNodes>
      <leafValues>
        5.7567602396011353e-01 -3.9430639147758484e-01</leafValues></_>
    <_>
      <internalNodes>
        0 -1 49503 -2.8710231184959412e-02</internalNodes>
      <leafValues>
        -9.1639167070388794e-01 2.5537705421447754e-01</leafValues></_></weakClassifiers></stage2>
</opencv_storage>
