<?xml version="1.0"?>
<opencv_storage>
<stage3>
  <maxWeakCount>6</maxWeakCount>
  <stageThreshold>-5.1108610630035400e-01</stageThreshold>
  <weakClassifiers>
    <_>
      <internalNodes>
        0 -1 11273 4.6951800584793091e-02</internalNodes>
      <leafValues>
        -5.7990866899490356e-01 3.3333334326744080e-01</leafValues></_>
    <_>
      <internalNodes>
        0 -1 159719 -1.8032419029623270e-03</internalNodes>
      <leafValues>
        1.4512512087821960e-01 -8.4630930423736572e-01</leafValues></_>
    <_>
      <internalNodes>
        0 -1 148286 3.5062092356383801e-03</internalNodes>
      <leafValues>
        1.7402283847332001e-01 -8.7354135513305664e-01</leafValues></_>
    <_>
      <internalNodes>
        0 -1 30986 1.6552031040191650e-02</internalNodes>
      <leafValues>
        1.8373909592628479e-01 -8.4402179718017578e-01</leafValues></_>
    <_>
      <internalNodes>
        0 -1 112709 -4.5585469342768192e-03</internalNodes>
      <leafValues>
        4.6255519986152649e-01 -3.7151920795440674e-01</leafValues></_>
    <_>
      <internalNodes>
        0 -1 162076 -1.4595811953768134e-03</internalNodes>
      <leafValues>
        1.7762935161590576e-01 -8.9661967754364014e-01</leafValues></_></weakClassifiers></stage3>
</opencv_storage>
