<?xml version="1.0"?>
<opencv_storage>
<stage15>
  <maxWeakCount>10</maxWeakCount>
  <stageThreshold>-1.0886298418045044e+00</stageThreshold>
  <weakClassifiers>
    <_>
      <internalNodes>
        0 -1 124852 -8.2862794399261475e-02</internalNodes>
      <leafValues>
        6.5714287757873535e-01 -4.6415093541145325e-01</leafValues></_>
    <_>
      <internalNodes>
        0 -1 76917 -6.4685451798141003e-04</internalNodes>
      <leafValues>
        3.2261577248573303e-01 -3.7137535214424133e-01</leafValues></_>
    <_>
      <internalNodes>
        0 -1 19423 -2.2363383322954178e-03</internalNodes>
      <leafValues>
        -3.6182400584220886e-01 4.5727744698524475e-01</leafValues></_>
    <_>
      <internalNodes>
        0 -1 160992 -1.6859772149473429e-03</internalNodes>
      <leafValues>
        -6.2247705459594727e-01 2.5480049848556519e-01</leafValues></_>
    <_>
      <internalNodes>
        0 -1 143215 -1.7539151012897491e-02</internalNodes>
      <leafValues>
        2.7219775319099426e-01 -5.2289229631423950e-01</leafValues></_>
    <_>
      <internalNodes>
        0 -1 4989 -9.0023741358891129e-04</internalNodes>
      <leafValues>
        -6.2202650308609009e-01 2.4302066862583160e-01</leafValues></_>
    <_>
      <internalNodes>
        0 -1 7438 -1.3238442130386829e-02</internalNodes>
      <leafValues>
        7.6892197132110596e-01 -2.1436284482479095e-01</leafValues></_>
    <_>
      <internalNodes>
        0 -1 81592 -2.3976149968802929e-03</internalNodes>
      <leafValues>
        6.9630652666091919e-01 -2.0201881229877472e-01</leafValues></_>
    <_>
      <internalNodes>
        0 -1 26133 1.6712946817278862e-03</internalNodes>
      <leafValues>
        -4.5389437675476074e-01 3.6003327369689941e-01</leafValues></_>
    <_>
      <internalNodes>
        0 -1 60617 -1.5811143675819039e-03</internalNodes>
      <leafValues>
        -6.1092370748519897e-01 2.7232760190963745e-01</leafValues></_></weakClassifiers></stage15>
</opencv_storage>
